<?xml version="1.0"?>
<opencv_storage>
<cascade>
  <stageType>BOOST</stageType>
  <featureType>HAAR</featureType>
  <height>40</height>
  <width>80</width>
  <stageParams>
    <boostType>GAB</boostType>
    <minHitRate>9.9900001287460327e-01</minHitRate>
    <maxFalseAlarm>5.0000000000000000e-01</maxFalseAlarm>
    <weightTrimRate>9.4999999999999996e-01</weightTrimRate>
    <maxDepth>1</maxDepth>
    <maxWeakCount>100</maxWeakCount></stageParams>
  <featureParams>
    <maxCatCount>0</maxCatCount>
    <featSize>1</featSize>
    <mode>ALL</mode></featureParams>
  <stageNum>12</stageNum>
  <stages>
    <!-- stage 0 -->
    <_>
      <maxWeakCount>2</maxWeakCount>
      <stageThreshold>-5.2656024694442749e-02</stageThreshold>
      <weakClassifiers>
        <_>
          <internalNodes>
            0 -1 23 4.3743558228015900e-02</internalNodes>
          <leafValues>
            -9.6283781528472900e-01 9.6230161190032959e-01</leafValues></_>
        <_>
          <internalNodes>
            0 -1 8 -1.3488194905221462e-02</internalNodes>
          <leafValues>
            9.1018182039260864e-01 -9.1608780622482300e-01</leafValues></_></weakClassifiers></_>
    <!-- stage 1 -->
    <_>
      <maxWeakCount>3</maxWeakCount>
      <stageThreshold>-9.6634298563003540e-01</stageThreshold>
      <weakClassifiers>
        <_>
          <internalNodes>
            0 -1 27 -8.6102262139320374e-03</internalNodes>
          <leafValues>
            8.7919461727142334e-01 -9.2818671464920044e-01</leafValues></_>
        <_>
          <internalNodes>
            0 -1 28 3.9772637188434601e-02</internalNodes>
          <leafValues>
            -8.1258851289749146e-01 8.7206131219863892e-01</leafValues></_>
        <_>
          <internalNodes>
            0 -1 18 3.2146663215826266e-06</internalNodes>
          <leafValues>
            -8.9435935020446777e-01 7.7443224191665649e-01</leafValues></_></weakClassifiers></_>
    <!-- stage 2 -->
    <_>
      <maxWeakCount>3</maxWeakCount>
      <stageThreshold>-8.3917641639709473e-01</stageThreshold>
      <weakClassifiers>
        <_>
          <internalNodes>
            0 -1 6 -1.7940402030944824e-01</internalNodes>
          <leafValues>
            9.9563318490982056e-01 -7.4853801727294922e-01</leafValues></_>
        <_>
          <internalNodes>
            0 -1 19 8.5127670317888260e-03</internalNodes>
          <leafValues>
            -9.1454190015792847e-01 7.2221291065216064e-01</leafValues></_>
        <_>
          <internalNodes>
            0 -1 35 1.5723437070846558e-02</internalNodes>
          <leafValues>
            -7.2817856073379517e-01 8.2390350103378296e-01</leafValues></_></weakClassifiers></_>
    <!-- stage 3 -->
    <_>
      <maxWeakCount>3</maxWeakCount>
      <stageThreshold>-8.4874832630157471e-01</stageThreshold>
      <weakClassifiers>
        <_>
          <internalNodes>
            0 -1 5 -1.7318674921989441e-01</internalNodes>
          <leafValues>
            9.8916578292846680e-01 -7.5775480270385742e-01</leafValues></_>
        <_>
          <internalNodes>
            0 -1 24 -3.0777273423154838e-06</internalNodes>
          <leafValues>
            7.7717781066894531e-01 -8.5949707031250000e-01</leafValues></_>
        <_>
          <internalNodes>
            0 -1 20 -8.1156659871339798e-03</internalNodes>
          <leafValues>
            7.6850354671478271e-01 -8.0587327480316162e-01</leafValues></_></weakClassifiers></_>
    <!-- stage 4 -->
    <_>
      <maxWeakCount>3</maxWeakCount>
      <stageThreshold>-8.4604591131210327e-01</stageThreshold>
      <weakClassifiers>
        <_>
          <internalNodes>
            0 -1 4 -1.6645602881908417e-01</internalNodes>
          <leafValues>
            9.9348533153533936e-01 -7.5846832990646362e-01</leafValues></_>
        <_>
          <internalNodes>
            0 -1 12 1.5201359055936337e-03</internalNodes>
          <leafValues>
            -6.9626057147979736e-01 8.4106069803237915e-01</leafValues></_>
        <_>
          <internalNodes>
            0 -1 36 1.6116600483655930e-02</internalNodes>
          <leafValues>
            -9.2863827943801880e-01 6.9537943601608276e-01</leafValues></_></weakClassifiers></_>
    <!-- stage 5 -->
    <_>
      <maxWeakCount>3</maxWeakCount>
      <stageThreshold>-8.8460302352905273e-01</stageThreshold>
      <weakClassifiers>
        <_>
          <internalNodes>
            0 -1 2 -1.8101525306701660e-01</internalNodes>
          <leafValues>
            9.9121844768524170e-01 -7.3004353046417236e-01</leafValues></_>
        <_>
          <internalNodes>
            0 -1 21 2.5413505682081450e-06</internalNodes>
          <leafValues>
            -9.5050281286239624e-01 7.6434886455535889e-01</leafValues></_>
        <_>
          <internalNodes>
            0 -1 30 -4.9175824970006943e-03</internalNodes>
          <leafValues>
            7.9594331979751587e-01 -6.9092941284179688e-01</leafValues></_></weakClassifiers></_>
    <!-- stage 6 -->
    <_>
      <maxWeakCount>3</maxWeakCount>
      <stageThreshold>-8.3072578907012939e-01</stageThreshold>
      <weakClassifiers>
        <_>
          <internalNodes>
            0 -1 0 -1.3351029157638550e-01</internalNodes>
          <leafValues>
            9.9093997478485107e-01 -6.6248255968093872e-01</leafValues></_>
        <_>
          <internalNodes>
            0 -1 22 2.4875910185073735e-06</internalNodes>
          <leafValues>
            -8.6753034591674805e-01 7.2415983676910400e-01</leafValues></_>
        <_>
          <internalNodes>
            0 -1 29 -6.0462625697255135e-04</internalNodes>
          <leafValues>
            6.9928711652755737e-01 -7.5508159399032593e-01</leafValues></_></weakClassifiers></_>
    <!-- stage 7 -->
    <_>
      <maxWeakCount>4</maxWeakCount>
      <stageThreshold>-1.1739625930786133e+00</stageThreshold>
      <weakClassifiers>
        <_>
          <internalNodes>
            0 -1 11 -4.0183622390031815e-02</internalNodes>
          <leafValues>
            9.4351464509963989e-01 -7.7950310707092285e-01</leafValues></_>
        <_>
          <internalNodes>
            0 -1 17 6.8499576300382614e-03</internalNodes>
          <leafValues>
            -6.9539648294448853e-01 8.5525310039520264e-01</leafValues></_>
        <_>
          <internalNodes>
            0 -1 33 -1.8536027520895004e-02</internalNodes>
          <leafValues>
            8.8841116428375244e-01 -5.9337180852890015e-01</leafValues></_>
        <_>
          <internalNodes>
            0 -1 9 -5.3038741461932659e-03</internalNodes>
          <leafValues>
            8.9997649192810059e-01 -5.8747422695159912e-01</leafValues></_></weakClassifiers></_>
    <!-- stage 8 -->
    <_>
      <maxWeakCount>3</maxWeakCount>
      <stageThreshold>-7.6662522554397583e-01</stageThreshold>
      <weakClassifiers>
        <_>
          <internalNodes>
            0 -1 1 -2.2371253371238708e-01</internalNodes>
          <leafValues>
            9.9084669351577759e-01 -6.4187330007553101e-01</leafValues></_>
        <_>
          <internalNodes>
            0 -1 15 -3.9154412224888802e-03</internalNodes>
          <leafValues>
            -9.6557134389877319e-01 6.7468017339706421e-01</leafValues></_>
        <_>
          <internalNodes>
            0 -1 7 -8.6306612938642502e-03</internalNodes>
          <leafValues>
            8.4081941843032837e-01 -6.6363978385925293e-01</leafValues></_></weakClassifiers></_>
    <!-- stage 9 -->
    <_>
      <maxWeakCount>4</maxWeakCount>
      <stageThreshold>-1.6124211549758911e+00</stageThreshold>
      <weakClassifiers>
        <_>
          <internalNodes>
            0 -1 3 -1.9586050510406494e-01</internalNodes>
          <leafValues>
            9.5628416538238525e-01 -6.9343066215515137e-01</leafValues></_>
        <_>
          <internalNodes>
            0 -1 14 7.5957854278385639e-04</internalNodes>
          <leafValues>
            -9.5927852392196655e-01 7.0763230323791504e-01</leafValues></_>
        <_>
          <internalNodes>
            0 -1 26 -4.4539514929056168e-03</internalNodes>
          <leafValues>
            6.7885977029800415e-01 -8.3167046308517456e-01</leafValues></_>
        <_>
          <internalNodes>
            0 -1 34 -1.5194554580375552e-03</internalNodes>
          <leafValues>
            7.7162843942642212e-01 -7.9495233297348022e-01</leafValues></_></weakClassifiers></_>
    <!-- stage 10 -->
    <_>
      <maxWeakCount>3</maxWeakCount>
      <stageThreshold>-7.1216934919357300e-01</stageThreshold>
      <weakClassifiers>
        <_>
          <internalNodes>
            0 -1 31 2.7893761172890663e-02</internalNodes>
          <leafValues>
            -7.9874211549758911e-01 9.4190871715545654e-01</leafValues></_>
        <_>
          <internalNodes>
            0 -1 25 1.1403362732380629e-03</internalNodes>
          <leafValues>
            8.7828189134597778e-01 -8.6696654558181763e-01</leafValues></_>
        <_>
          <internalNodes>
            0 -1 10 -2.6328593958169222e-03</internalNodes>
          <leafValues>
            9.5353931188583374e-01 -7.3545026779174805e-01</leafValues></_></weakClassifiers></_>
    <!-- stage 11 -->
    <_>
      <maxWeakCount>3</maxWeakCount>
      <stageThreshold>-7.0239841938018799e-01</stageThreshold>
      <weakClassifiers>
        <_>
          <internalNodes>
            0 -1 13 -1.8144563364330679e-04</internalNodes>
          <leafValues>
            1. -8.6915886402130127e-01</leafValues></_>
        <_>
          <internalNodes>
            0 -1 32 -3.1067277304828167e-03</internalNodes>
          <leafValues>
            -8.1437468528747559e-01 1.</leafValues></_>
        <_>
          <internalNodes>
            0 -1 16 -6.9667777279391885e-04</internalNodes>
          <leafValues>
            1. -8.3323955535888672e-01</leafValues></_></weakClassifiers></_></stages>
  <features>
    <_>
      <rects>
        <_>
          10 8 60 14 -1.</_>
        <_>
          25 8 30 14 2.</_></rects>
      <tilted>0</tilted></_>
    <_>
      <rects>
        <_>
          12 5 56 27 -1.</_>
        <_>
          26 5 28 27 2.</_></rects>
      <tilted>0</tilted></_>
    <_>
      <rects>
        <_>
          12 8 56 22 -1.</_>
        <_>
          26 8 28 22 2.</_></rects>
      <tilted>0</tilted></_>
    <_>
      <rects>
        <_>
          13 7 56 24 -1.</_>
        <_>
          27 7 28 24 2.</_></rects>
      <tilted>0</tilted></_>
    <_>
      <rects>
        <_>
          14 7 52 24 -1.</_>
        <_>
          27 7 26 24 2.</_></rects>
      <tilted>0</tilted></_>
    <_>
      <rects>
        <_>
          15 7 52 25 -1.</_>
        <_>
          28 7 26 25 2.</_></rects>
      <tilted>0</tilted></_>
    <_>
      <rects>
        <_>
          15 7 52 26 -1.</_>
        <_>
          28 7 26 26 2.</_></rects>
      <tilted>0</tilted></_>
    <_>
      <rects>
        <_>
          20 8 18 15 -1.</_>
        <_>
          26 8 6 15 3.</_></rects>
      <tilted>0</tilted></_>
    <_>
      <rects>
        <_>
          20 8 14 17 -1.</_>
        <_>
          27 8 7 17 2.</_></rects>
      <tilted>0</tilted></_>
    <_>
      <rects>
        <_>
          20 14 8 12 -1.</_>
        <_>
          24 14 4 12 2.</_></rects>
      <tilted>0</tilted></_>
    <_>
      <rects>
        <_>
          21 11 15 9 -1.</_>
        <_>
          26 11 5 9 3.</_></rects>
      <tilted>0</tilted></_>
    <_>
      <rects>
        <_>
          23 0 31 16 -1.</_>
        <_>
          23 8 31 8 2.</_></rects>
      <tilted>0</tilted></_>
    <_>
      <rects>
        <_>
          23 11 8 2 -1.</_>
        <_>
          23 11 4 2 2.</_></rects>
      <tilted>1</tilted></_>
    <_>
      <rects>
        <_>
          28 4 18 9 -1.</_>
        <_>
          34 4 6 9 3.</_></rects>
      <tilted>0</tilted></_>
    <_>
      <rects>
        <_>
          29 4 12 4 -1.</_>
        <_>
          29 4 6 4 2.</_></rects>
      <tilted>1</tilted></_>
    <_>
      <rects>
        <_>
          31 16 9 9 -1.</_>
        <_>
          34 19 3 3 9.</_></rects>
      <tilted>0</tilted></_>
    <_>
      <rects>
        <_>
          34 1 3 12 -1.</_>
        <_>
          34 7 3 6 2.</_></rects>
      <tilted>0</tilted></_>
    <_>
      <rects>
        <_>
          35 0 6 16 -1.</_>
        <_>
          35 0 3 16 2.</_></rects>
      <tilted>1</tilted></_>
    <_>
      <rects>
        <_>
          38 20 5 2 -1.</_>
        <_>
          38 21 5 1 2.</_></rects>
      <tilted>0</tilted></_>
    <_>
      <rects>
        <_>
          39 22 22 12 -1.</_>
        <_>
          50 22 11 12 2.</_></rects>
      <tilted>0</tilted></_>
    <_>
      <rects>
        <_>
          40 0 11 14 -1.</_>
        <_>
          40 7 11 7 2.</_></rects>
      <tilted>0</tilted></_>
    <_>
      <rects>
        <_>
          40 20 3 3 -1.</_>
        <_>
          41 21 1 1 9.</_></rects>
      <tilted>0</tilted></_>
    <_>
      <rects>
        <_>
          40 20 2 4 -1.</_>
        <_>
          40 22 2 2 2.</_></rects>
      <tilted>0</tilted></_>
    <_>
      <rects>
        <_>
          43 6 20 28 -1.</_>
        <_>
          53 6 10 28 2.</_></rects>
      <tilted>0</tilted></_>
    <_>
      <rects>
        <_>
          43 16 6 7 -1.</_>
        <_>
          46 16 3 7 2.</_></rects>
      <tilted>0</tilted></_>
    <_>
      <rects>
        <_>
          44 0 9 24 -1.</_>
        <_>
          47 0 3 24 3.</_></rects>
      <tilted>0</tilted></_>
    <_>
      <rects>
        <_>
          45 0 23 12 -1.</_>
        <_>
          42 3 23 6 2.</_></rects>
      <tilted>1</tilted></_>
    <_>
      <rects>
        <_>
          45 1 9 20 -1.</_>
        <_>
          45 11 9 10 2.</_></rects>
      <tilted>0</tilted></_>
    <_>
      <rects>
        <_>
          46 9 16 25 -1.</_>
        <_>
          54 9 8 25 2.</_></rects>
      <tilted>0</tilted></_>
    <_>
      <rects>
        <_>
          47 6 14 8 -1.</_>
        <_>
          47 10 14 4 2.</_></rects>
      <tilted>0</tilted></_>
    <_>
      <rects>
        <_>
          47 24 16 16 -1.</_>
        <_>
          47 24 8 8 2.</_>
        <_>
          55 32 8 8 2.</_></rects>
      <tilted>0</tilted></_>
    <_>
      <rects>
        <_>
          49 0 19 10 -1.</_>
        <_>
          49 0 19 5 2.</_></rects>
      <tilted>1</tilted></_>
    <_>
      <rects>
        <_>
          50 9 6 9 -1.</_>
        <_>
          52 11 2 9 3.</_></rects>
      <tilted>1</tilted></_>
    <_>
      <rects>
        <_>
          54 19 8 13 -1.</_>
        <_>
          54 19 4 13 2.</_></rects>
      <tilted>1</tilted></_>
    <_>
      <rects>
        <_>
          55 14 9 15 -1.</_>
        <_>
          50 19 9 5 3.</_></rects>
      <tilted>1</tilted></_>
    <_>
      <rects>
        <_>
          58 3 6 12 -1.</_>
        <_>
          58 3 6 6 2.</_></rects>
      <tilted>1</tilted></_>
    <_>
      <rects>
        <_>
          61 6 6 20 -1.</_>
        <_>
          61 6 6 10 2.</_></rects>
      <tilted>1</tilted></_></features></cascade>
</opencv_storage>
