<?xml version="1.0"?>
<opencv_storage>
<cascade>
  <stageType>BOOST</stageType>
  <featureType>HAAR</featureType>
  <height>50</height>
  <width>50</width>
  <stageParams>
    <boostType>GAB</boostType>
    <minHitRate>9.9900001287460327e-01</minHitRate>
    <maxFalseAlarm>5.0000000000000000e-01</maxFalseAlarm>
    <weightTrimRate>9.4999999999999996e-01</weightTrimRate>
    <maxDepth>1</maxDepth>
    <maxWeakCount>100</maxWeakCount></stageParams>
  <featureParams>
    <maxCatCount>0</maxCatCount>
    <featSize>1</featSize>
    <mode>ALL</mode></featureParams>
  <stageNum>12</stageNum>
  <stages>
    <!-- stage 0 -->
    <_>
      <maxWeakCount>2</maxWeakCount>
      <stageThreshold>2.2150933742523193e-02</stageThreshold>
      <weakClassifiers>
        <_>
          <internalNodes>
            0 -1 23 7.5887488201260567e-03</internalNodes>
          <leafValues>
            -9.5652174949645996e-01 9.9599599838256836e-01</leafValues></_>
        <_>
          <internalNodes>
            0 -1 12 -2.5611773133277893e-02</internalNodes>
          <leafValues>
            9.9184346199035645e-01 -9.7384506464004517e-01</leafValues></_></weakClassifiers></_>
    <!-- stage 1 -->
    <_>
      <maxWeakCount>2</maxWeakCount>
      <stageThreshold>1.1363965459167957e-02</stageThreshold>
      <weakClassifiers>
        <_>
          <internalNodes>
            0 -1 0 -1.7363268882036209e-02</internalNodes>
          <leafValues>
            9.8804783821105957e-01 -9.6992480754852295e-01</leafValues></_>
        <_>
          <internalNodes>
            0 -1 15 2.7870871126651764e-02</internalNodes>
          <leafValues>
            -9.7668385505676270e-01 9.8598635196685791e-01</leafValues></_></weakClassifiers></_>
    <!-- stage 2 -->
    <_>
      <maxWeakCount>2</maxWeakCount>
      <stageThreshold>1.5336569631472230e-03</stageThreshold>
      <weakClassifiers>
        <_>
          <internalNodes>
            0 -1 22 -7.2885756380856037e-03</internalNodes>
          <leafValues>
            9.7815293073654175e-01 -9.3846154212951660e-01</leafValues></_>
        <_>
          <internalNodes>
            0 -1 9 -1.9805246591567993e-01</internalNodes>
          <leafValues>
            9.3999516963958740e-01 -8.5393208265304565e-01</leafValues></_></weakClassifiers></_>
    <!-- stage 3 -->
    <_>
      <maxWeakCount>3</maxWeakCount>
      <stageThreshold>-7.9608362913131714e-01</stageThreshold>
      <weakClassifiers>
        <_>
          <internalNodes>
            0 -1 25 1.6941029578447342e-02</internalNodes>
          <leafValues>
            -8.8709676265716553e-01 9.6051335334777832e-01</leafValues></_>
        <_>
          <internalNodes>
            0 -1 3 -4.0233284235000610e-02</internalNodes>
          <leafValues>
            9.5639920234680176e-01 -8.2262063026428223e-01</leafValues></_>
        <_>
          <internalNodes>
            0 -1 20 -7.4886013753712177e-03</internalNodes>
          <leafValues>
            9.1363376379013062e-01 -8.3513695001602173e-01</leafValues></_></weakClassifiers></_>
    <!-- stage 4 -->
    <_>
      <maxWeakCount>4</maxWeakCount>
      <stageThreshold>2.0334266126155853e-02</stageThreshold>
      <weakClassifiers>
        <_>
          <internalNodes>
            0 -1 5 -9.4119757413864136e-03</internalNodes>
          <leafValues>
            9.6059113740921021e-01 -9.1803276538848877e-01</leafValues></_>
        <_>
          <internalNodes>
            0 -1 21 -3.2897554337978363e-03</internalNodes>
          <leafValues>
            9.3229389190673828e-01 -8.9352869987487793e-01</leafValues></_>
        <_>
          <internalNodes>
            0 -1 13 -5.8788694441318512e-02</internalNodes>
          <leafValues>
            9.0924483537673950e-01 -7.8734290599822998e-01</leafValues></_>
        <_>
          <internalNodes>
            0 -1 10 -3.8768299855291843e-03</internalNodes>
          <leafValues>
            9.2265087366104126e-01 -7.8287202119827271e-01</leafValues></_></weakClassifiers></_>
    <!-- stage 5 -->
    <_>
      <maxWeakCount>2</maxWeakCount>
      <stageThreshold>-6.0074906796216965e-03</stageThreshold>
      <weakClassifiers>
        <_>
          <internalNodes>
            0 -1 2 -2.0823070406913757e-01</internalNodes>
          <leafValues>
            9.7216701507568359e-01 -8.7786257266998291e-01</leafValues></_>
        <_>
          <internalNodes>
            0 -1 17 6.6631655499804765e-06</internalNodes>
          <leafValues>
            -9.5177501440048218e-01 8.7185508012771606e-01</leafValues></_></weakClassifiers></_>
    <!-- stage 6 -->
    <_>
      <maxWeakCount>2</maxWeakCount>
      <stageThreshold>6.0305587947368622e-02</stageThreshold>
      <weakClassifiers>
        <_>
          <internalNodes>
            0 -1 6 1.2306005228310823e-03</internalNodes>
          <leafValues>
            -8.5185188055038452e-01 9.7604793310165405e-01</leafValues></_>
        <_>
          <internalNodes>
            0 -1 24 3.9789758622646332e-02</internalNodes>
          <leafValues>
            -9.1574233770370483e-01 9.1885578632354736e-01</leafValues></_></weakClassifiers></_>
    <!-- stage 7 -->
    <_>
      <maxWeakCount>5</maxWeakCount>
      <stageThreshold>-8.2055789232254028e-01</stageThreshold>
      <weakClassifiers>
        <_>
          <internalNodes>
            0 -1 1 -6.0304611921310425e-02</internalNodes>
          <leafValues>
            9.4509804248809814e-01 -8.6324787139892578e-01</leafValues></_>
        <_>
          <internalNodes>
            0 -1 7 -7.0573170669376850e-03</internalNodes>
          <leafValues>
            9.0265613794326782e-01 -8.7885314226150513e-01</leafValues></_>
        <_>
          <internalNodes>
            0 -1 19 -1.7626562621444464e-03</internalNodes>
          <leafValues>
            8.1750410795211792e-01 -8.6058467626571655e-01</leafValues></_>
        <_>
          <internalNodes>
            0 -1 18 1.6930082812905312e-02</internalNodes>
          <leafValues>
            -7.3359578847885132e-01 9.3154692649841309e-01</leafValues></_>
        <_>
          <internalNodes>
            0 -1 4 -2.7741421014070511e-02</internalNodes>
          <leafValues>
            8.3763474225997925e-01 -9.0497511625289917e-01</leafValues></_></weakClassifiers></_>
    <!-- stage 8 -->
    <_>
      <maxWeakCount>1</maxWeakCount>
      <stageThreshold>9.7044336795806885e-01</stageThreshold>
      <weakClassifiers>
        <_>
          <internalNodes>
            0 -1 8 5.3717484697699547e-03</internalNodes>
          <leafValues>
            9.7044336795806885e-01 -1.</leafValues></_></weakClassifiers></_>
    <!-- stage 9 -->
    <_>
      <maxWeakCount>1</maxWeakCount>
      <stageThreshold>9.7238659858703613e-01</stageThreshold>
      <weakClassifiers>
        <_>
          <internalNodes>
            0 -1 14 1.4175022952258587e-03</internalNodes>
          <leafValues>
            -1. 9.7238659858703613e-01</leafValues></_></weakClassifiers></_>
    <!-- stage 10 -->
    <_>
      <maxWeakCount>1</maxWeakCount>
      <stageThreshold>9.7823935747146606e-01</stageThreshold>
      <weakClassifiers>
        <_>
          <internalNodes>
            0 -1 11 1.6531435772776604e-02</internalNodes>
          <leafValues>
            9.7823935747146606e-01 -1.</leafValues></_></weakClassifiers></_>
    <!-- stage 11 -->
    <_>
      <maxWeakCount>1</maxWeakCount>
      <stageThreshold>1.</stageThreshold>
      <weakClassifiers>
        <_>
          <internalNodes>
            0 -1 16 -2.7570825070142746e-02</internalNodes>
          <leafValues>
            -1. 1.</leafValues></_></weakClassifiers></_></stages>
  <features>
    <_>
      <rects>
        <_>
          1 10 12 29 -1.</_>
        <_>
          7 10 6 29 2.</_></rects>
      <tilted>0</tilted></_>
    <_>
      <rects>
        <_>
          2 5 44 19 -1.</_>
        <_>
          13 5 22 19 2.</_></rects>
      <tilted>0</tilted></_>
    <_>
      <rects>
        <_>
          2 5 48 41 -1.</_>
        <_>
          18 5 16 41 3.</_></rects>
      <tilted>0</tilted></_>
    <_>
      <rects>
        <_>
          2 10 12 32 -1.</_>
        <_>
          8 10 6 32 2.</_></rects>
      <tilted>0</tilted></_>
    <_>
      <rects>
        <_>
          2 12 10 28 -1.</_>
        <_>
          7 12 5 28 2.</_></rects>
      <tilted>0</tilted></_>
    <_>
      <rects>
        <_>
          2 31 14 10 -1.</_>
        <_>
          9 31 7 10 2.</_></rects>
      <tilted>0</tilted></_>
    <_>
      <rects>
        <_>
          3 8 30 20 -1.</_>
        <_>
          3 8 15 10 2.</_>
        <_>
          18 18 15 10 2.</_></rects>
      <tilted>0</tilted></_>
    <_>
      <rects>
        <_>
          4 11 14 32 -1.</_>
        <_>
          4 19 14 16 2.</_></rects>
      <tilted>0</tilted></_>
    <_>
      <rects>
        <_>
          5 10 42 30 -1.</_>
        <_>
          5 20 42 10 3.</_></rects>
      <tilted>0</tilted></_>
    <_>
      <rects>
        <_>
          6 2 38 48 -1.</_>
        <_>
          6 14 38 24 2.</_></rects>
      <tilted>0</tilted></_>
    <_>
      <rects>
        <_>
          7 39 28 6 -1.</_>
        <_>
          14 39 14 6 2.</_></rects>
      <tilted>0</tilted></_>
    <_>
      <rects>
        <_>
          8 23 24 9 -1.</_>
        <_>
          20 23 12 9 2.</_></rects>
      <tilted>0</tilted></_>
    <_>
      <rects>
        <_>
          9 2 32 14 -1.</_>
        <_>
          9 9 32 7 2.</_></rects>
      <tilted>0</tilted></_>
    <_>
      <rects>
        <_>
          10 1 31 14 -1.</_>
        <_>
          10 8 31 7 2.</_></rects>
      <tilted>0</tilted></_>
    <_>
      <rects>
        <_>
          12 15 27 21 -1.</_>
        <_>
          21 22 9 7 9.</_></rects>
      <tilted>0</tilted></_>
    <_>
      <rects>
        <_>
          12 38 26 12 -1.</_>
        <_>
          12 44 26 6 2.</_></rects>
      <tilted>0</tilted></_>
    <_>
      <rects>
        <_>
          14 22 30 23 -1.</_>
        <_>
          29 22 15 23 2.</_></rects>
      <tilted>0</tilted></_>
    <_>
      <rects>
        <_>
          14 40 7 8 -1.</_>
        <_>
          14 44 7 4 2.</_></rects>
      <tilted>0</tilted></_>
    <_>
      <rects>
        <_>
          20 0 6 20 -1.</_>
        <_>
          20 0 3 20 2.</_></rects>
      <tilted>1</tilted></_>
    <_>
      <rects>
        <_>
          22 35 28 3 -1.</_>
        <_>
          29 35 14 3 2.</_></rects>
      <tilted>0</tilted></_>
    <_>
      <rects>
        <_>
          26 28 6 16 -1.</_>
        <_>
          22 32 6 8 2.</_></rects>
      <tilted>1</tilted></_>
    <_>
      <rects>
        <_>
          26 30 24 6 -1.</_>
        <_>
          32 30 12 6 2.</_></rects>
      <tilted>0</tilted></_>
    <_>
      <rects>
        <_>
          29 13 20 18 -1.</_>
        <_>
          34 13 10 18 2.</_></rects>
      <tilted>0</tilted></_>
    <_>
      <rects>
        <_>
          35 0 10 8 -1.</_>
        <_>
          35 0 10 4 2.</_></rects>
      <tilted>1</tilted></_>
    <_>
      <rects>
        <_>
          36 9 14 34 -1.</_>
        <_>
          43 9 7 34 2.</_></rects>
      <tilted>0</tilted></_>
    <_>
      <rects>
        <_>
          38 11 12 19 -1.</_>
        <_>
          44 11 6 19 2.</_></rects>
      <tilted>0</tilted></_></features></cascade>
</opencv_storage>
